// This file is computer-generated by onnx2c 
// (TODO: add creating command line here)
// (TODO: print creation date here )

// ONNX model:
// produced by pytorch, version 1.12.0
// ONNX IR version: 13
// Model documentation: 
/*

*/

#include <float.h>
#include <math.h>
#include <stdbool.h>
#include <stdint.h>
#include <string.h>
#define MAX(X,Y) ( X > Y ? X : Y)
#define MIN(X,Y) ( X < Y ? X : Y)
#define CLIP(X,L) ( MAX(MIN(X,L), -L) )

static const float tensor_dense_layers_0_weight[25][784] = 
{
  {0.028737124055624008179f, -0.016274584457278251648f, 0.0010337345302104949951f, -0.017231745645403862000f, -0.013698749244213104248f, 0.0095415450632572174072f, -0.014874570071697235107f, -0.034315127879381179810f, -0.023943211883306503296f, 0.0018783621490001678467f, 0.0066044479608535766602f, 0.012784890830516815186f, -0.098027981817722320557f, -0.11035306006669998169f, 0.059105839580297470093f, 0.0057945665903389453888f, -0.019648164510726928711f, 0.0051927976310253143311f, 0.0078201293945312500000f, 0.024232324212789535522f, -0.0034206099808216094971f, -0.013046409934759140015f, -0.026562139391899108887f, 0.017810970544815063477f, 0.014557383954524993896f, 0.0087230578064918518066f, -0.0033688545227050781250f, -0.022408783435821533203f, 0.0094165802001953125000f, 0.0065258927643299102783f, -0.0036429502069950103760f, -0.0083698164671659469604f, -0.0055239875800907611847f, -0.047932747751474380493f, -0.24688553810119628906f, -0.31152886152267456055f, -0.32783070206642150879f, -0.31427001953125000000f, -0.20256595313549041748f, -0.18783509731292724609f, -0.26017677783966064453f, -0.33401575684547424316f, -0.30846863985061645508f, 0.030406324192881584167f, 0.061234209686517715454f, 0.096296183764934539795f, -0.22227567434310913086f, -0.28471606969833374023f, -0.21993191540241241455f, -0.092819154262542724609f, -0.17237928509712219238f, -0.19669745862483978271f, 0.021505337208509445190f, 0.032514553517103195190f, -0.010852402076125144958f, -0.030290797352790832520f, 0.027240034192800521851f, 0.0080478526651859283447f, 0.0038601392880082130432f, -0.21018202602863311768f, -0.23043325543403625488f, -0.14418154954910278320f, -0.35425096750259399414f, -0.33514520525932312012f, -0.43561565876007080078f, -0.40246835350990295410f, -0.46471589803695678711f, -0.32541218400001525879f, -0.30573979020118713379f, -0.48337680101394653320f, -0.78331965208053588867f, -0.88482034206390380859f, -0.65221446752548217773f, -0.020441126078367233276f, -0.00060683430638164281845f, 0.026444919407367706299f, 0.051368284970521926880f, -0.18308639526367187500f, -0.21174833178520202637f, -0.39016640186309814453f, -0.047360364347696304321f, -0.0076181720942258834839f, -0.011946069076657295227f, 0.011694021522998809814f, -0.0098080597817897796631f, -0.028895214200019836426f, 0.0016711216885596513748f, -0.25652310252189636230f, -0.13543923199176788330f, -0.35806328058242797852f, -0.41076290607452392578f, -0.46814426779747009277f, -0.17490124702453613281f, -0.26974853873252868652f, -0.23684772849082946777f, -0.27217006683349609375f, -0.22742743790149688721f, -0.56257647275924682617f, -0.49124103784561157227f, -0.33659756183624267578f, -0.54739046096801757812f, -0.28221517801284790039f, -0.12556767463684082031f, -0.091083124279975891113f, -0.19692447781562805176f, -0.18878917396068572998f, -0.20748607814311981201f, -0.30848637223243713379f, 0.29178205132484436035f, -0.028689993545413017273f, -0.0094173420220613479614f, -0.00080209597945213317871f, 0.0079770684242248535156f, 0.039153791964054107666f, 0.0057754907757043838501f, 0.32606038451194763184f, -0.12473753094673156738f, -0.43659371137619018555f, -0.078305885195732116699f, -0.31404161453247070312f, -0.25308859348297119141f, -0.30802330374717712402f, -0.45615518093109130859f, -0.42674386501312255859f, -0.56184023618698120117f, -0.67737573385238647461f, -0.69045519828796386719f, -0.55607557296752929688f, -0.65442365407943725586f, -0.49644374847412109375f, -0.27199292182922363281f, -0.18872766196727752686f, -0.24366174638271331787f, 0.15680076181888580322f, 0.13709816336631774902f, -0.0040201102383434772491f, 0.56427669525146484375f, 0.66464442014694213867f, 0.25252482295036315918f, -0.087356433272361755371f, -0.018860358744859695435f, -0.026472240686416625977f, -0.12179126590490341187f, 0.13499459624290466309f, -0.29297858476638793945f, 0.023027617484331130981f, -0.23701459169387817383f, -0.30863299965858459473f, -0.015209104865789413452f, -0.055455125868320465088f, -0.16245612502098083496f, -0.076886132359504699707f, -0.44098040461540222168f, -0.11787498742341995239f, -0.22254784405231475830f, -0.098785705864429473877f, -0.20324335992336273193f, -0.42430448532104492188f, -0.21627722680568695068f, -0.068305388092994689941f, 0.046746566891670227051f, 0.16570331156253814697f, 0.19996187090873718262f, 0.10735777020454406738f, 0.43543764948844909668f, 0.79734122753143310547f, 0.086982861161231994629f, -0.24468050897121429443f, -0.023767612874507904053f, 0.0091397156938910484314f, 0.35820442438125610352f, 0.75811815261840820312f, 0.31476122140884399414f, 0.0088723180815577507019f, 0.032271377742290496826f, -0.16878554224967956543f, 0.34747803211212158203f, 0.19763110578060150146f, 0.071863479912281036377f, 0.21018758416175842285f, 0.34851396083831787109f, 0.46582049131393432617f, 0.61651057004928588867f, 0.73283833265304565430f, 0.66745471954345703125f, 0.41895163059234619141f, 0.49834769964218139648f, 0.20065358281135559082f, 0.22721061110496520996f, 0.31653612852096557617f, 0.068597845733165740967f, -0.47081163525581359863f, -0.26125472784042358398f, 0.15093474090099334717f, -0.077191948890686035156f, 0.046112641692161560059f, -0.026305487379431724548f, 0.12535266578197479248f, 0.41901820898056030273f, 0.56245023012161254883f, 0.035702008754014968872f, -0.20326659083366394043f, -0.019378194585442543030f, 0.053165856748819351196f, 0.32056939601898193359f, 0.32581660151481628418f, 0.29170066118240356445f, 0.32025179266929626465f, 0.52274930477142333984f, 0.60616523027420043945f, 0.82110637426376342773f, 0.81415724754333496094f, 0.95182925462722778320f, 0.59911924600601196289f, 0.42365622520446777344f, 0.26098296046257019043f, 0.32084956765174865723f, 0.27111250162124633789f, -0.018697299063205718994f, -0.68427854776382446289f, -0.70416104793548583984f, -0.25160792469978332520f, -0.055547025054693222046f, 0.14075139164924621582f, 0.021103080362081527710f, 0.36374902725219726562f, -0.13937400281429290771f, -0.24260178208351135254f, 0.030413687229156494141f, -0.14936551451683044434f, 0.020920004695653915405f, 0.083095550537109375000f, 0.28807935118675231934f, 0.16449871659278869629f, 0.22563217580318450928f, 0.21836067736148834229f, 0.14656192064285278320f, 0.36552605032920837402f, 0.72240263223648071289f, 0.60462754964828491211f, 0.64072650671005249023f, 0.31618672609329223633f, 0.17685469985008239746f, 0.056514542549848556519f, 0.11307537555694580078f, 0.060942213982343673706f, -0.13963896036148071289f, -0.41499519348144531250f, -0.60083800554275512695f, -0.35572439432144165039f, 0.020665597170591354370f, 0.11070241034030914307f, -0.054738331586122512817f, 0.34594136476516723633f, 0.016756184399127960205f, -0.25371006131172180176f, -0.018863005563616752625f, -0.0065858522430062294006f, 0.23681125044822692871f, 0.19762174785137176514f, 0.18255065381526947021f, 0.21968273818492889404f, 0.31909295916557312012f, 0.16074018180370330811f, 0.30674147605895996094f, 0.45569387078285217285f, 0.58748614788055419922f, 0.43444529175758361816f, 0.25206130743026733398f, 0.13671670854091644287f, -0.032722085714340209961f, -0.12475097179412841797f, -0.092031612992286682129f, -0.065105482935905456543f, 0.037369571626186370850f, -0.41387549042701721191f, -0.35602423548698425293f, 0.21155309677124023438f, 0.037347953766584396362f, 0.070158459246158599854f, -0.021620102226734161377f, 0.25797784328460693359f, 0.19251282513141632080f, 0.23620435595512390137f, 0.19073069095611572266f, 0.068091802299022674561f, 0.24972425401210784912f, 0.19647984206676483154f, 0.10887829959392547607f, 0.22852526605129241943f, 0.16532526910305023193f, 0.22300870716571807861f, 0.10593862086534500122f, 0.11239751428365707397f, 0.092827200889587402344f, -0.019131697714328765869f, -0.10610857605934143066f, -0.16656911373138427734f, -0.17552345991134643555f, -0.22313372790813446045f, -0.084426142275333404541f, -0.036029100418090820312f, -0.00076043792068958282471f, -0.32670545578002929688f, -0.34299877285957336426f, 0.62859690189361572266f, 0.27992409467697143555f, 0.32953271269798278809f, 0.0032929328735917806625f, -0.051526330411434173584f, 0.52837860584259033203f, 0.71843641996383666992f, 0.37864482402801513672f, 0.26264584064483642578f, 0.13483135402202606201f, 0.011247569695115089417f, 0.084107950329780578613f, 0.040730811655521392822f, -0.093343637883663177490f, -0.066511429846286773682f, -0.18543832004070281982f, -0.22649598121643066406f, -0.24304406344890594482f, 0.14949789643287658691f, 0.12530401349067687988f, 0.17030093073844909668f, 0.17931671440601348877f, -0.16984301805496215820f, -0.092267118394374847412f, -0.20370922982692718506f, 0.039506845176219940186f, -0.069926120340824127197f, -0.27681207656860351562f, 0.38736817240715026855f, 0.32802808284759521484f, 0.14817489683628082275f, -0.050358802080154418945f, 0.25383445620536804199f, 0.26851296424865722656f, 0.48217162489891052246f, 0.49172398447990417480f, 0.27353551983833312988f, -0.064367301762104034424f, -0.068479418754577636719f, -0.037749662995338439941f, -0.0094929859042167663574f, -0.14911454916000366211f, -0.41935843229293823242f, -0.79208272695541381836f, -0.42945441603660583496f, 0.0033438561949878931046f, 0.30377289652824401855f, 0.18738119304180145264f, 0.34526696801185607910f, 0.30927482247352600098f, 0.18217523396015167236f, 0.10676480084657669067f, -0.19220273196697235107f, -0.0032430079299956560135f, -0.19807647168636322021f, -1.0357093811035156250f, 0.21371512115001678467f, 0.46843284368515014648f, 0.10839391499757766724f, -0.14205904304981231689f, 0.090772494673728942871f, 0.24801185727119445801f, 0.69959151744842529297f, 0.52372252941131591797f, 0.23485843837261199951f, 0.0097199827432632446289f, 0.064345136284828186035f, 0.083659708499908447266f, 0.019304584711790084839f, -0.19524158537387847900f, -0.32861647009849548340f, -0.45881128311157226562f, -0.095511585474014282227f, 0.32248780131340026855f, 0.10880677402019500732f, 0.12373923510313034058f, 0.15556146204471588135f, 0.22687461972236633301f, 0.32070678472518920898f, 0.38502207398414611816f, 0.17172916233539581299f, -0.15550446510314941406f, -0.48195931315422058105f, -1.0151162147521972656f, 0.42888253927230834961f, 0.59573024511337280273f, 0.21005091071128845215f, -0.18334640562534332275f, 0.15867416560649871826f, 0.16534760594367980957f, 0.43210083246231079102f, 0.26104357838630676270f, -0.047560576349496841431f, 0.15608416497707366943f, -6.7090637458022683859e-05f, 0.16986009478569030762f, 0.18149775266647338867f, 0.035092510282993316650f, -0.24309073388576507568f, -0.29078388214111328125f, -0.0040010544471442699432f, 0.22462540864944458008f, 0.14155702292919158936f, 0.11909979581832885742f, 0.059224881231784820557f, 0.12449502944946289062f, 0.25762984156608581543f, 0.32670509815216064453f, 0.23021690547466278076f, -0.058840304613113403320f, -0.35469439625740051270f, -0.26526990532875061035f, 0.35740020871162414551f, 0.81723749637603759766f, 0.12004814296960830688f, -0.14792482554912567139f, 0.20975551009178161621f, -0.50265961885452270508f, 0.017569504678249359131f, -0.13270872831344604492f, -0.0063459454104304313660f, 0.34788799285888671875f, 0.088713414967060089111f, 0.18892702460289001465f, 0.10322692245244979858f, 0.15200456976890563965f, 0.090369306504726409912f, -0.059628844261169433594f, -0.039735250174999237061f, -0.11976809799671173096f, 0.22882510721683502197f, 0.28351670503616333008f, 0.36483198404312133789f, 0.27241739630699157715f, 0.20883882045745849609f, 0.29781800508499145508f, 0.30565834045410156250f, -0.12898176908493041992f, -0.24160544574260711670f, 0.16990563273429870605f, 0.19348004460334777832f, 0.68886679410934448242f, 0.36663174629211425781f, -0.0037201705854386091232f, 0.22676405310630798340f, 0.090293757617473602295f, -0.11409030854701995850f, -0.055670641362667083740f, 0.13313008844852447510f, 0.26179665327072143555f, 0.17956654727458953857f, 0.057243097573518753052f, -0.048190258443355560303f, 0.076673582196235656738f, 0.18356962502002716064f, 0.28378564119338989258f, 0.10851611942052841187f, -0.10151690244674682617f, 0.082273311913013458252f, 0.20966200530529022217f, 0.53876805305480957031f, 0.29875653982162475586f, 0.095108374953269958496f, 0.016916835680603981018f, 0.20266686379909515381f, 0.16332563757896423340f, -0.30028671026229858398f, 0.029720019549131393433f, 0.28304648399353027344f, 0.78779661655426025391f, 0.39026606082916259766f, -0.025238722562789916992f, 0.27107316255569458008f, -0.064110495150089263916f, 0.10067569464445114136f, -0.31896147131919860840f, -0.10292159020900726318f, 0.10398560762405395508f, -0.019947996363043785095f, -0.052591335028409957886f, -0.086844108998775482178f, -0.18719130754470825195f, -0.060521673411130905151f, -0.029292754828929901123f, -0.047702819108963012695f, -0.083539143204689025879f, 0.19761672616004943848f, 0.085175909101963043213f, 0.35379287600517272949f, 0.18902246654033660889f, 0.041901879012584686279f, 0.042697772383689880371f, 0.12953123450279235840f, -0.095266878604888916016f, -0.27061313390731811523f, -0.030513649806380271912f, 0.41278335452079772949f, 0.79050636291503906250f, 0.28246802091598510742f, 0.24608922004699707031f, 0.056898400187492370605f, 0.32960653305053710938f, 0.44213202595710754395f, -0.12391212582588195801f, -0.22810249030590057373f, -0.055849507451057434082f, -0.41002359986305236816f, -0.38383290171623229980f, -0.43528515100479125977f, -0.57424008846282958984f, -0.57738077640533447266f, -0.79527097940444946289f, -0.38843798637390136719f, -0.045971229672431945801f, 0.20407132804393768311f, 0.049230616539716720581f, 0.21514755487442016602f, -0.037272520363330841064f, 0.051411956548690795898f, 0.046143785119056701660f, 0.22642993927001953125f, -0.12766094505786895752f, -0.35748001933097839355f, -0.16809120774269104004f, 0.20080819725990295410f, 0.64007252454757690430f, 0.31180855631828308105f, 0.0050672437064349651337f, 0.051257401704788208008f, 0.42682465910911560059f, 0.33525192737579345703f, -0.10421028733253479004f, -0.31748953461647033691f, -0.43510523438453674316f, -0.65407162904739379883f, -0.57427126169204711914f, -0.62818932533264160156f, -0.83248281478881835938f, -1.0688873529434204102f, -0.91972315311431884766f, -0.52604436874389648438f, -0.23339520394802093506f, -0.10971356183290481567f, 0.074133314192295074463f, 0.20179487764835357666f, 0.022179128602147102356f, 0.11195425689220428467f, 0.061753273010253906250f, 0.028542838990688323975f, -0.15066386759281158447f, -0.17987394332885742188f, -0.021802425384521484375f, 0.52824884653091430664f, 0.50682932138442993164f, 0.20837414264678955078f, -0.032568242400884628296f, -0.21589729189872741699f, -0.032140918076038360596f, 0.51856905221939086914f, 0.088463045656681060791f, -0.38833668828010559082f, -0.55865001678466796875f, -0.61795300245285034180f, -0.64797931909561157227f, -0.76083648204803466797f, -0.69143277406692504883f, -0.78319466114044189453f, -0.72732919454574584961f, -0.27447530627250671387f, -0.26799026131629943848f, -0.083138540387153625488f, 0.22099789977073669434f, 0.18430297076702117920f, -0.028803428635001182556f, -0.029885604977607727051f, 0.074179075658321380615f, -0.29545587301254272461f, -0.31243929266929626465f, -0.27727806568145751953f, 0.54569178819656372070f, 0.82132607698440551758f, 0.19427770376205444336f, 0.029225377365946769714f, -0.064904771745204925537f, -0.00086274795467033982277f, 0.18709278106689453125f, 0.16772523522377014160f, 0.096122436225414276123f, -0.37958881258964538574f, -0.42856046557426452637f, -0.27865657210350036621f, -0.25018334388732910156f, -0.55357146263122558594f, -0.26266819238662719727f, -0.35316765308380126953f, -0.12307572364807128906f, -0.16404068470001220703f, 0.012205648235976696014f, 0.0010197556111961603165f, 0.23862786591053009033f, -0.12148069590330123901f, -0.18772409856319427490f, 0.0074620521627366542816f, -0.075445368885993957520f, 0.019499840214848518372f, -0.13553206622600555420f, -0.30381938815116882324f, 0.23137754201889038086f, 0.27258527278900146484f, -0.10093943029642105103f, 0.0068591181188821792603f, -0.021687323227524757385f, -0.042051635682582855225f, -0.23631989955902099609f, -0.044455118477344512939f, -0.010603940114378929138f, -0.19834624230861663818f, -0.072206832468509674072f, -0.060574680566787719727f, 0.10200261324644088745f, -0.053441651165485382080f, -0.0017373866867274045944f, 0.012721738778054714203f, 0.030004503205418586731f, -0.11792635917663574219f, 0.12003408372402191162f, -0.048279337584972381592f, -0.062556609511375427246f, -0.13493001461029052734f, -0.071511209011077880859f, 0.031197503209114074707f, 0.0070543019101023674011f, 0.12644764780998229980f, 0.16526192426681518555f, 0.22800299525260925293f, 0.22705367207527160645f, -0.18051937222480773926f, -0.37008702754974365234f, -0.0029713979456573724747f, -0.0015959031879901885986f, -0.026100773364305496216f, -0.41044461727142333984f, 0.011369046755135059357f, 0.28480651974678039551f, 0.30147808790206909180f, 0.27250128984451293945f, 0.25713199377059936523f, 0.033028349280357360840f, 0.021882109344005584717f, 0.29348173737525939941f, 0.14735922217369079590f, 0.032947044819593429565f, -0.15927624702453613281f, 0.065160714089870452881f, -0.034500736743211746216f, -0.19977757334709167480f, -0.16789521276950836182f, 0.092166021466255187988f, 0.077601611614227294922f, 0.018326694145798683167f, 0.13267992436885833740f, 0.24825546145439147949f, 0.40666142106056213379f, 0.34795457124710083008f, -0.39961445331573486328f, -0.35056716203689575195f, -0.019140047952532768250f, 0.033277954906225204468f, 0.0085118561983108520508f, 0.051928665488958358765f, 0.35187166929244995117f, 0.65261930227279663086f, 0.75626361370086669922f, 0.78902828693389892578f, 0.40888369083404541016f, 0.39321449398994445801f, 0.21727749705314636230f, 0.25003084540367126465f, 0.13825064897537231445f, -0.030459651723504066467f, 0.16305679082870483398f, 0.13106052577495574951f, 0.10922493785619735718f, -0.00074821215821430087090f, 0.34125131368637084961f, 0.085995659232139587402f, -0.092683471739292144775f, 0.29612767696380615234f, 0.54284602403640747070f, 0.38553857803344726562f, 0.44091662764549255371f, 0.39529904723167419434f, -0.20899420976638793945f, -0.17168584465980529785f, -0.0014156103134155273438f, 0.019508291035890579224f, -0.011222418397665023804f, -0.022682404145598411560f, 0.35513147711753845215f, 0.71897405385971069336f, 1.0692341327667236328f, 0.74250471591949462891f, 0.71073120832443237305f, 0.90366399288177490234f, 0.63209855556488037109f, 0.46291771531105041504f, 0.41276821494102478027f, 0.54506123065948486328f, 0.48893168568611145020f, 0.31527546048164367676f, 0.27344945073127746582f, 0.46019002795219421387f, 0.46720930933952331543f, 0.40839189291000366211f, 0.55821454524993896484f, 0.86664795875549316406f, 0.90466582775115966797f, 0.53288620710372924805f, 0.32140317559242248535f, 0.51113563776016235352f, 0.080827206373214721680f, -0.16062727570533752441f, 0.014982834458351135254f, 0.0060391016304492950439f, -0.00027400627732276916504f, -0.00058654323220252990723f, 0.10464568436145782471f, 0.37519064545631408691f, 0.59613549709320068359f, 0.86029911041259765625f, 0.74377381801605224609f, 0.50998049974441528320f, 0.86663830280303955078f, 1.1353518962860107422f, 1.4139981269836425781f, 0.89286005496978759766f, 1.1827428340911865234f, 1.5255633592605590820f, 0.97457939386367797852f, 1.0766792297363281250f, 1.2355202436447143555f, 1.1392947435379028320f, 0.88827079534530639648f, 1.1856648921966552734f, 1.0189405679702758789f, 0.63388162851333618164f, 0.65429276227951049805f, 0.27605023980140686035f, 0.017242660745978355408f, 0.015449546277523040771f, 0.025283645838499069214f, -0.014052897691726684570f, -0.034131836146116256714f, 0.035147223621606826782f, 0.0031981058418750762939f, -0.13691931962966918945f, -0.17934124171733856201f, 0.33504578471183776855f, 0.28789311647415161133f, 0.33289200067520141602f, 0.35800215601921081543f, 0.40096038579940795898f, 0.39829924702644348145f, 0.36667791008949279785f, 0.46257656812667846680f, 0.84031027555465698242f, 0.20111815631389617920f, 0.44326391816139221191f, 0.41785702109336853027f, 0.51095890998840332031f, 0.38520917296409606934f, 0.088811516761779785156f, 0.48262241482734680176f, 0.38850748538970947266f, 0.29437246918678283691f, -0.032083448022603988647f, 0.035666231065988540649f, 0.031413141638040542603f, 0.018173858523368835449f},
  {-0.0021700263023376464844f, -0.0082127377390861511230f, -0.028465881943702697754f, 0.0028301849961280822754f, 0.00019758939743041992188f, 0.030052226036787033081f, -0.033598091453313827515f, -0.0068147610872983932495f, 0.035538133233785629272f, -0.0039513371884822845459f, -0.020901387557387351990f, 0.031963039189577102661f, -0.025405868887901306152f, 0.026415608823299407959f, 0.012026537209749221802f, 0.022736381739377975464f, 0.027920823544263839722f, -0.019762597978115081787f, 0.00027056410908699035645f, 0.0028223991394042968750f, 0.0056882239878177642822f, 0.025317270308732986450f, 0.0047764964401721954346f, 0.032553408294916152954f, -0.020799122750759124756f, 0.023780129849910736084f, -0.0016726478934288024902f, -0.0010867752134799957275f, -0.0044963993132114410400f, 0.031088244169950485229f, -0.011997735127806663513f, 0.0065462738275527954102f, 0.028876546770334243774f, 0.021616958081722259521f, -0.026822507381439208984f, -0.0035328269004821777344f, -0.031213536858558654785f, -0.024351254105567932129f, -0.011499209329485893250f, -0.018506331369280815125f, -0.031417183578014373779f, 0.0018433332443237304688f, 0.013303548097610473633f, 0.014268770813941955566f, -0.0073620378971099853516f, -0.021350402384996414185f, 0.027186553925275802612f, 0.027201008051633834839f, 0.023919880390167236328f, 0.00054056569933891296387f, 0.023407511413097381592f, 0.030727405101060867310f, 0.012373689562082290649f, -0.022443082183599472046f, -0.023380463942885398865f, -0.0059014093130826950073f, -0.027415592223405838013f, -0.0026164725422859191895f, 0.017745908349752426147f, 0.033958356827497482300f, -0.033340014517307281494f, -0.022958539426326751709f, -0.0054737590253353118896f, 0.020272895693778991699f, -0.033379543572664260864f, 0.015428934246301651001f, 0.017805967479944229126f, 0.020012218505144119263f, -0.0025786347687244415283f, -0.017461441457271575928f, 0.022009056061506271362f, -0.0021727643907070159912f, -0.0028363747987896203995f, 0.011658457107841968536f, -0.00031723873689770698547f, 0.0097860991954803466797f, 0.018452052026987075806f, 0.016354069113731384277f, 0.020659688860177993774f, -0.034351512789726257324f, 0.026681210845708847046f, 0.0047961063683032989502f, -0.015960570424795150757f, -0.029586311429738998413f, -0.0098951123654842376709f, -0.013937793672084808350f, 0.016261018812656402588f, 0.029985133558511734009f, 0.031653288751840591431f, -0.0015108250081539154053f, -0.022848317399621009827f, -0.026901233941316604614f, 0.027864370495080947876f, 0.0022076964378356933594f, -0.016964219510555267334f, -0.024826562032103538513f, -0.0099031757563352584839f, 0.017663974314928054810f, -0.028020579367876052856f, -0.021469211205840110779f, 0.0092612272128462791443f, 0.020160704851150512695f, -0.0046811280772089958191f, 0.012112633325159549713f, -0.021212140098214149475f, 0.0083528459072113037109f, 0.032231990247964859009f, -0.019832458347082138062f, -0.013712909072637557983f, 0.012899789959192276001f, 0.028575863689184188843f, -0.0062576197087764739990f, -0.027517370879650115967f, -0.033354170620441436768f, -0.033841997385025024414f, 0.029798652976751327515f, 0.017302632331848144531f, 0.016139164566993713379f, 0.033183801919221878052f, 0.022780943661928176880f, -0.025606578215956687927f, -0.0054238736629486083984f, 0.014594912528991699219f, -0.0038819983601570129395f, -0.0077189779840409755707f, -0.037208899855613708496f, -0.0042492984794080257416f, -0.031171206384897232056f, 0.024834541603922843933f, 0.011325646191835403442f, -0.0063745845109224319458f, -0.036848161369562149048f, -0.032926999032497406006f, -0.035687752068042755127f, 0.026253502815961837769f, -0.016018118709325790405f, -0.0089619755744934082031f, -0.0012957230210304260254f, -0.024889491498470306396f, 0.011828802525997161865f, -0.030628861859440803528f, -0.035326134413480758667f, -0.025697790086269378662f, -0.040819872170686721802f, -0.0089814737439155578613f, -0.010199366137385368347f, -0.030466778203845024109f, -0.017853954806923866272f, -0.018068758770823478699f, -0.0099658109247684478760f, 0.011071482673287391663f, -0.011408870108425617218f, 0.016795761883258819580f, -0.031545694917440414429f, -0.018655532971024513245f, -0.0088396668434143066406f, -0.044166810810565948486f, 0.0078672515228390693665f, 0.0060659972950816154480f, 0.0016264308942481875420f, 0.0025345063768327236176f, -0.036490827798843383789f, 0.0070020928978919982910f, -0.023743379861116409302f, 0.016032237559556961060f, 0.020225107669830322266f, -0.0089701376855373382568f, -0.033562447875738143921f, -0.024165082722902297974f, 0.023307103663682937622f, 0.025224369019269943237f, -0.037407089024782180786f, -0.016345405951142311096f, -0.0068461792543530464172f, 0.0014053429476916790009f, 0.022437164559960365295f, 0.0043353391811251640320f, -0.030708603560924530029f, 0.027286807075142860413f, 0.010143568739295005798f, -0.014880017377436161041f, -0.022586908191442489624f, 0.020777802914381027222f, -0.0010043145157396793365f, -0.029078740626573562622f, -0.033689424395561218262f, 0.023696333169937133789f, -0.030583357438445091248f, 0.018987286835908889771f, 0.015850827097892761230f, -0.035370983183383941650f, 0.030542705208063125610f, 0.014604970812797546387f, -0.027885038405656814575f, -0.028262224048376083374f, -0.030535303056240081787f, -0.0062573123723268508911f, -0.033504676073789596558f, 0.015677947551012039185f, 0.015708707273006439209f, -0.014230561442673206329f, -0.024819472804665565491f, -0.028562165796756744385f, -0.0049847043119370937347f, -0.028384169563651084900f, -0.018907723948359489441f, 0.023297147825360298157f, -0.041487362235784530640f, -0.010435225442051887512f, 0.0011475773062556982040f, 0.025856751948595046997f, -0.014789460226893424988f, 0.014420113526284694672f, -0.035223647952079772949f, -0.013974002562463283539f, 0.022276667878031730652f, -0.031712874770164489746f, -0.019314223900437355042f, -0.0028702244162559509277f, -0.023283332586288452148f, -0.026314515620470046997f, -0.027200117707252502441f, 0.0085154697299003601074f, 0.021016322076320648193f, 0.017978895455598831177f, 0.033078793436288833618f, -0.023038256913423538208f, 0.0024582406040281057358f, -0.039954937994480133057f, -0.020284673199057579041f, 0.0074449088424444198608f, 0.011001375503838062286f, -0.018475988879799842834f, 0.025073118507862091064f, 0.028354957699775695801f, -0.026692314073443412781f, -0.036554034799337387085f, -0.026971271261572837830f, 0.010422854684293270111f, -0.035294435918331146240f, -0.017413524910807609558f, -0.0066235978156328201294f, 0.0078256335109472274780f, 0.0067747542634606361389f, -0.010986873880028724670f, -0.041641667485237121582f, -0.034622471779584884644f, -0.021315384656190872192f, 0.027069125324487686157f, -0.021741285920143127441f, 0.018604263663291931152f, 0.0083447061479091644287f, 0.016403730958700180054f, 0.014427032321691513062f, 0.034173544496297836304f, 0.028398016467690467834f, -0.036035913974046707153f, -0.0024587172083556652069f, 0.026303332298994064331f, 0.015187199227511882782f, 0.017525311559438705444f, 0.026620637625455856323f, -0.039779797196388244629f, -0.019481832161545753479f, 0.010738774202764034271f, -0.027016183361411094666f, 0.020815141499042510986f, -0.0039245528168976306915f, 0.0041899033822119235992f, -0.028049219399690628052f, -0.040885973721742630005f, 0.012928313575685024261f, 0.033754955977201461792f, 0.018663913011550903320f, -0.0016084387898445129395f, 0.0046030953526496887207f, 0.017188690602779388428f, 0.028835598379373550415f, 0.0093062408268451690674f, -0.0071496106684207916260f, -0.032214380800724029541f, 0.030754107981920242310f, -0.035017296671867370605f, -0.0021226082462817430496f, 0.0030586179345846176147f, 0.0055844578891992568970f, -0.012213733047246932983f, 0.012035015970468521118f, -0.0098175872117280960083f, 0.0038132565096020698547f, 0.0021281270310282707214f, -0.023167774081230163574f, -0.015961149707436561584f, -0.013430214487016201019f, 0.0028229649178683757782f, -0.037845492362976074219f, 0.0027851869817823171616f, 0.024401959031820297241f, -0.017220184206962585449f, -0.016336381435394287109f, -0.027711022645235061646f, -0.010788427665829658508f, 0.029152166098356246948f, -0.031551875174045562744f, 0.033528510481119155884f, -0.020897546783089637756f, -0.028168011456727981567f, 0.010715208947658538818f, -0.0085742175579071044922f, 0.010126236826181411743f, 0.029888633638620376587f, -0.032560668885707855225f, 0.023867569863796234131f, -0.00017279013991355895996f, 0.010222130455076694489f, -0.00015696395712438970804f, -0.0010587045690044760704f, 0.0086467536166310310364f, -0.040826540440320968628f, -0.014725767076015472412f, -0.0064539159648120403290f, -0.024049444124102592468f, 0.011332793161273002625f, 0.010767430067062377930f, -0.035814974457025527954f, -0.037088975310325622559f, -0.013617179356515407562f, -0.016921682283282279968f, 0.0097462609410285949707f, -0.0073370561003684997559f, -0.016876703128218650818f, -0.023078907281160354614f, -0.022527083754539489746f, -0.035576630383729934692f, -0.023241227492690086365f, -0.021451955661177635193f, -0.022055432200431823730f, -0.031623061746358871460f, 0.0022077001631259918213f, 0.016468819230794906616f, -0.020127113908529281616f, -0.0057469308376312255859f, -0.023974793031811714172f, 0.028662862256169319153f, -0.042450401932001113892f, -0.010110632516443729401f, 0.0064017525874078273773f, 0.0073737842030823230743f, -0.0016817068681120872498f, -0.034495424479246139526f, 0.0085888030007481575012f, 0.0046857618726789951324f, -0.00044705544132739305496f, -0.040344376116991043091f, -0.038655120879411697388f, -0.019332388415932655334f, 0.023163661360740661621f, -0.028721645474433898926f, 0.017788544297218322754f, -0.0020494870841503143311f, 0.025087557733058929443f, -0.028372323140501976013f, 0.0057281367480754852295f, 0.031434502452611923218f, -0.0027055665850639343262f, 0.031320821493864059448f, -0.0084346160292625427246f, 0.028237070888280868530f, 0.013791505247354507446f, 0.019523613154888153076f, -0.024431131780147552490f, -0.021928638219833374023f, -0.013516890816390514374f, -0.011805254966020584106f, 0.023830816149711608887f, -0.0049952478148043155670f, -0.011155951768159866333f, 0.0075676348060369491577f, 0.020834894850850105286f, 0.016816705465316772461f, 0.0097423866391181945801f, 0.0055482592433691024780f, 0.020617794245481491089f, 0.0041722361929714679718f, -0.025020075961947441101f, 0.018132815137505531311f, -0.0023414513561874628067f, -0.010814726352691650391f, -0.035287760198116302490f, -0.012871675193309783936f, 0.018172822892665863037f, 0.0018828883767127990723f, 0.015174984931945800781f, -0.031587343662977218628f, -0.035118259489536285400f, -0.018628645688295364380f, -0.031483732163906097412f, -0.022244552150368690491f, 0.0048570968210697174072f, -0.018679741770029067993f, 0.023814134299755096436f, 0.0044298460707068443298f, 0.025054732337594032288f, 0.0050255227833986282349f, -0.024838760495185852051f, -0.035881333053112030029f, 0.017393076792359352112f, -0.0055803409777581691742f, 0.0027978492435067892075f, 0.021655647084116935730f, 0.013937212526798248291f, 0.0014372789300978183746f, 0.018568024039268493652f, 0.024022689089179039001f, 0.027815032750368118286f, 0.00044891610741615295410f, -0.022406801581382751465f, 0.024580460041761398315f, 0.0075169838964939117432f, 0.015751928091049194336f, 0.031894203275442123413f, 0.00033217668533325195312f, 0.019509565085172653198f, -0.012655638158321380615f, 0.012010313570499420166f, 0.020977631211280822754f, 0.0020707510411739349365f, 0.023035043850541114807f, -0.033046625554561614990f, -0.013370688073337078094f, -0.018057536333799362183f, -0.038553509861230850220f, -0.023672234266996383667f, -0.0028836347628384828568f, -0.0054651368409395217896f, -0.020660839974880218506f, -0.030332975089550018311f, -0.018109045922756195068f, -0.018450511619448661804f, -0.029814841225743293762f, -0.025936594232916831970f, 0.00074635050259530544281f, -0.024097921326756477356f, 0.0055831260979175567627f, 0.021989081054925918579f, -0.012005653232336044312f, -0.011571204289793968201f, -0.029715232551097869873f, 0.032173428684473037720f, -0.0026254765689373016357f, -0.029158534482121467590f, -0.031423408538103103638f, 0.028027039021253585815f, -0.029574230313301086426f, 0.014371879398822784424f, 0.0073258494958281517029f, -0.037210382521152496338f, 0.027664434164762496948f, -0.017375839874148368835f, -0.020042592659592628479f, -0.0018390482291579246521f, -0.021430350840091705322f, -0.0032218068372458219528f, -0.0096288044005632400513f, 0.017203042283654212952f, -0.0049431198276579380035f, -0.018475634977221488953f, 0.012403488159179687500f, 0.020847462117671966553f, -0.024840509518980979919f, -0.031238371506333351135f, -0.028858687728643417358f, 0.012525532394647598267f, 0.028957676142454147339f, -0.0095773264765739440918f, -0.028555050492286682129f, 0.0062605924904346466064f, -0.010214941576123237610f, 0.017346583306789398193f, 0.0021471418440341949463f, 0.021613847464323043823f, -0.0017995461821556091309f, -0.032289583235979080200f, -0.014148209244012832642f, -0.030051497742533683777f, -0.040297277271747589111f, 0.026136931031942367554f, -0.033878549933433532715f, -0.028155066072940826416f, -0.00080127437831833958626f, -0.031377878040075302124f, -0.020851643756031990051f, -0.033848885446786880493f, 0.025550987571477890015f, -0.015549297444522380829f, -0.043469086289405822754f, -0.031774036586284637451f, 0.011427466757595539093f, 0.019823815673589706421f, -0.015393555164337158203f, -0.0054338369518518447876f, -0.0095331594347953796387f, -0.031113268807530403137f, 0.0096629522740840911865f, -0.0054602324962615966797f, -0.0011293292045593261719f, -0.0080389808863401412964f, -0.0051879547536373138428f, 0.016058418899774551392f, 0.0056590400636196136475f, 0.0026940070092678070068f, -0.027455179020762443542f, -0.033857218921184539795f, -0.0022808334324508905411f, -0.0014469036832451820374f, 0.024578293785452842712f, -0.0098117403686046600342f, -0.0038368396926671266556f, 0.016073085367679595947f, -0.031650610268115997314f, -0.026058139279484748840f, -0.0040909354574978351593f, -0.012669288553297519684f, 0.0069037787616252899170f, 0.010538727976381778717f, -0.0090359142050147056580f, -0.014601193368434906006f, -0.0080850087106227874756f, -0.032630678266286849976f, -0.022792622447013854980f, -0.030747810378670692444f, 0.010126877576112747192f, 0.012557897716760635376f, 0.030405547469854354858f, -0.035255033522844314575f, -0.032526224851608276367f, -0.016066484153270721436f, 0.020296148955821990967f, -0.0046021770685911178589f, 0.019588071852922439575f, -0.032427601516246795654f, -0.028986301273107528687f, -0.036504592746496200562f, -0.013554963283240795135f, -0.027458043769001960754f, -0.021742595359683036804f, -0.0056290435604751110077f, -0.0047818650491535663605f, 0.018118778243660926819f, -0.018077740445733070374f, -0.035271652042865753174f, 0.015935890376567840576f, -0.017053170129656791687f, 0.0097075896337628364563f, -0.0071952487342059612274f, 0.015345029532909393311f, -0.022559354081749916077f, -0.0064338780939579010010f, -0.025665421038866043091f, 0.0085061676800251007080f, -0.029998039826750755310f, 0.0018004700541496276855f, 0.015307463705539703369f, 0.0068998113274574279785f, -0.013610141351819038391f, -0.028406366705894470215f, -0.030595533549785614014f, -0.036466795951128005981f, -0.027968160808086395264f, 0.014673007652163505554f, 0.013878310099244117737f, 0.015722282230854034424f, 0.0031919956672936677933f, 0.023392228409647941589f, 0.00031479663448408246040f, -0.039833173155784606934f, -0.017176128923892974854f, -0.0017066871514543890953f, 0.0070540080778300762177f, -0.016651628538966178894f, -0.019545203074812889099f, 0.018114497885107994080f, 0.0067081162706017494202f, 0.0095412731170654296875f, -0.032531850039958953857f, -0.0023925639688968658447f, -0.014503913000226020813f, 0.016612850129604339600f, -0.015145843848586082458f, -0.016768176108598709106f, -0.027372390031814575195f, 0.015789534896612167358f, -0.016942799091339111328f, 0.011766787618398666382f, 0.019306963309645652771f, 0.017914310097694396973f, -0.0089311087504029273987f, 0.013361937366425991058f, -0.033670611679553985596f, 0.016435205936431884766f, -0.0039919707924127578735f, -0.036541398614645004272f, 0.024250585585832595825f, -0.031234558671712875366f, -0.033571261912584304810f, -0.038902368396520614624f, -0.00037298182724043726921f, -0.0014447257854044437408f, -0.0083931917324662208557f, 0.00041420568595640361309f, -0.032715335488319396973f, -0.0018466934561729431152f, -0.0024484731256961822510f, 0.032855790108442306519f, 0.032002743333578109741f, -0.020649403333663940430f, -0.033573795109987258911f, -0.017454076558351516724f, 0.016683816909790039062f, -0.027250729501247406006f, 0.0078715682029724121094f, 0.00055038928985595703125f, -0.0045880419202148914337f, 0.0041538029909133911133f, -0.037756357342004776001f, -0.0083623118698596954346f, 0.020049400627613067627f, 0.022531859576702117920f, -0.0017487808363512158394f, -0.036841902881860733032f, -0.025484178215265274048f, 0.020623024553060531616f, 0.015159292146563529968f, -0.021831277757883071899f, -0.0044422484934329986572f, 0.0071168164722621440887f, -0.013754417188465595245f, 0.024812432006001472473f, -0.013227062299847602844f, -0.015463612973690032959f, 0.0053903199732303619385f, 0.030017618089914321899f, -0.033271685242652893066f, 0.022562969475984573364f, 0.0084758140146732330322f, -0.0093717407435178756714f, -0.0091051291674375534058f, 0.022297289222478866577f, 0.023399244993925094604f, 0.034956496208906173706f, 0.0033892467617988586426f, -0.014112963341176509857f, -0.027750624343752861023f, -0.033062160015106201172f, -0.022596824914216995239f, -0.0079511459916830062866f, -0.020823132246732711792f, 0.014698098413646221161f, -0.016944635659456253052f, -0.014267424121499061584f, 0.017970403656363487244f, 0.015902951359748840332f, -0.017935084179043769836f, 0.022009886801242828369f, -0.025440067052841186523f, -0.029238954186439514160f, -0.026925258338451385498f, -0.031231110915541648865f, 0.016049023717641830444f, 0.013197980821132659912f, -0.0030687749385833740234f, 0.018344782292842864990f, 0.016312137246131896973f, -0.031075768172740936279f, -0.028890896588563919067f, -0.010418474674224853516f, -0.0031450800597667694092f, 0.022804230451583862305f, 0.015902757644653320312f, -0.0035936534404754638672f, -0.029875915497541427612f, -0.030972629785537719727f, -0.016423879191279411316f, -0.016587845981121063232f, 0.022215783596038818359f, 0.015128928236663341522f, -0.031923078000545501709f, -0.029219934716820716858f, -0.037851657718420028687f, -0.041056748479604721069f, -0.013704981654882431030f, 0.032423358410596847534f, 0.026571497321128845215f, -0.0058259163051843643188f, 0.031740192323923110962f, -0.028234653174877166748f, 0.031780336052179336548f, -0.032828673720359802246f, -0.0085105728358030319214f, 0.030914817005395889282f, 0.022126518189907073975f, 0.032671187072992324829f, 0.035052802413702011108f, -0.0034787878394126892090f, -0.0092610884457826614380f, -0.027884207665920257568f, 0.0028073191642761230469f, -0.0088810790330171585083f, -0.028475787490606307983f, -0.024214515462517738342f, -0.026045024394989013672f, 0.031043771654367446899f, -0.0070615075528621673584f, -0.026916271075606346130f, -0.022846823558211326599f, 0.0082739293575286865234f, -0.018215959891676902771f, -0.0031563825905323028564f, -0.015033863484859466553f, -0.0025761462748050689697f, -0.00094995275139808654785f, 0.026072554290294647217f, -0.024336373433470726013f, 0.0033743269741535186768f, -0.0050241481512784957886f, -0.023066572844982147217f, 0.031080801039934158325f, 0.013614196330308914185f, -0.010851478204131126404f, -0.019899927079677581787f, -0.016023635864257812500f, 0.021464835852384567261f, 0.028486814349889755249f, 0.0045075081288814544678f, -0.021565999835729598999f, -0.016921533271670341492f, 0.014946136623620986938f, 0.0061003044247627258301f, -0.031847745180130004883f, -0.021608421579003334045f, -0.012710146605968475342f, 0.020561788231134414673f, -0.015681395307183265686f, 0.019779060035943984985f, -0.033430360257625579834f, 0.012755975127220153809f, 0.012963727116584777832f, -0.0030880644917488098145f, 0.031431224197149276733f, 0.017535671591758728027f, 0.017253477126359939575f, 0.0038305297493934631348f, 0.00079528242349624633789f, -0.015759874135255813599f, -0.030600162222981452942f, -0.012286042794585227966f, -0.019977813586592674255f, 0.011284448206424713135f, 0.0068382062017917633057f, 0.0011294595897197723389f, -0.017385292798280715942f, -0.016414476558566093445f, -0.020210132002830505371f, -0.018559051677584648132f, 0.011856645345687866211f, 0.034277927130460739136f, -0.015796581283211708069f, 0.0045228041708469390869f, -0.017273213714361190796f, -0.025003004819154739380f, 0.031613808125257492065f, -0.0052609443664550781250f, 0.027751188725233078003f, 0.021569732576608657837f, 0.0063604265451431274414f, 0.029214050620794296265f, 0.018087796866893768311f, -0.0034610368311405181885f, -0.0061799455434083938599f, -0.029833348467946052551f, 0.021258912980556488037f, -0.021561011672019958496f, -0.030493341386318206787f, -0.015536731109023094177f},
  {0.024950008839368820190f, 0.035663995891809463501f, -0.032757263630628585815f, 0.0046928003430366516113f, 0.031578313559293746948f, 0.022702306509017944336f, 0.020858965814113616943f, -0.021676545962691307068f, 0.022821199148893356323f, -0.025496065616607666016f, 0.0061565674841403961182f, 0.00069497898221015930176f, 0.045831941068172454834f, 0.035661548376083374023f, 0.023141007870435714722f, 0.046024594455957412720f, -0.011067019775509834290f, -0.0063482020050287246704f, 0.022706795483827590942f, -0.0076106190681457519531f, 0.010821230709552764893f, 0.0047634318470954895020f, -0.014088081195950508118f, -0.030629124492406845093f, 0.014268215745687484741f, 0.011860132217407226562f, -0.018864078447222709656f, 0.014482844620943069458f, -0.029413262382149696350f, -0.0012376941740512847900f, 0.031156528741121292114f, -0.017819732427597045898f, -0.012772038578987121582f, 0.11131078004837036133f, 0.22219276428222656250f, 0.25293874740600585938f, 0.10956734418869018555f, 0.15522715449333190918f, 0.073609538376331329346f, -0.20785483717918395996f, -0.067808672785758972168f, -0.18868225812911987305f, -0.27917981147766113281f, -0.13657367229461669922f, 0.28313499689102172852f, 0.22890301048755645752f, 0.14073510468006134033f, 0.29821988940238952637f, 0.21321846544742584229f, 0.24930062890052795410f, 0.33821359276771545410f, 0.35348477959632873535f, 0.0080580450594425201416f, 0.0077826008200645446777f, 0.013329684734344482422f, -0.029102416709065437317f, -0.0040302313864231109619f, 0.012837521731853485107f, 0.0056872460991144180298f, 0.16391509771347045898f, 0.25551503896713256836f, 0.064108945429325103760f, 0.27053114771842956543f, 0.29033732414245605469f, 0.66414535045623779297f, 0.94461894035339355469f, 0.71559280157089233398f, 0.59566068649291992188f, 0.55719834566116333008f, 0.62939280271530151367f, 0.88124090433120727539f, 0.55468744039535522461f, 0.32686558365821838379f, 0.084352403879165649414f, -0.0079730376601219177246f, 0.086485907435417175293f, 0.30394062399864196777f, 0.23829989135265350342f, 0.20123432576656341553f, 0.47802311182022094727f, 0.31264108419418334961f, 0.31911128759384155273f, 0.020292524248361587524f, 0.024430502206087112427f, 0.026439234614372253418f, -0.017349392175674438477f, -0.16531552374362945557f, 0.21464674174785614014f, -0.084268353879451751709f, 0.43055161833763122559f, 0.81448787450790405273f, 0.80721837282180786133f, 0.56321853399276733398f, 0.83603984117507934570f, 0.95082366466522216797f, 0.88049691915512084961f, 0.79490971565246582031f, 0.78052484989166259766f, 0.63379418849945068359f, 0.19311381876468658447f, 0.14693824946880340576f, 0.25626897811889648438f, 0.28376451134681701660f, 0.22688050568103790283f, 0.39412182569503784180f, 0.31222313642501831055f, -0.13227504491806030273f, -0.17014272511005401611f, -0.22163416445255279541f, 0.25851005315780639648f, 0.21593476831912994385f, -0.0084769167006015777588f, -0.024763032793998718262f, -0.029962528496980667114f, 0.034271813929080963135f, 0.34719118475914001465f, 0.33730334043502807617f, 0.66339296102523803711f, 0.23228953778743743896f, 0.13224890828132629395f, 0.29627427458763122559f, 0.53502565622329711914f, 0.69802242517471313477f, 0.32810088992118835449f, 0.46000441908836364746f, 0.81233996152877807617f, 0.78111422061920166016f, 0.47698828577995300293f, 0.39806538820266723633f, 0.28038811683654785156f, 0.33711022138595581055f, 0.12865251302719116211f, 0.085792683064937591553f, -0.066551804542541503906f, -0.42889761924743652344f, -0.81852275133132934570f, -0.34396287798881530762f, 0.22774806618690490723f, 0.27883604168891906738f, 0.15455077588558197021f, 0.014008883386850357056f, 0.014199636876583099365f, 0.15553665161132812500f, 0.41296413540840148926f, 0.44665968418121337891f, 0.60926651954650878906f, 0.35373631119728088379f, 0.17052514851093292236f, 0.22120209038257598877f, 0.18643938004970550537f, 0.19924654066562652588f, 0.23633797466754913330f, 0.35544893145561218262f, 0.32339638471603393555f, 0.35924166440963745117f, 0.25467240810394287109f, 0.33188068866729736328f, 0.075120232999324798584f, 0.010499285534024238586f, -0.18986904621124267578f, 0.046984653919935226440f, 0.013443591073155403137f, -0.19263313710689544678f, -0.34223026037216186523f, -0.16865344345569610596f, 0.30392402410507202148f, 0.25993925333023071289f, 0.044058069586753845215f, 0.011163353919982910156f, 0.043694958090782165527f, -0.13841292262077331543f, 0.44292333722114562988f, 0.40568441152572631836f, 0.15664397180080413818f, 0.21559540927410125732f, -0.019125023856759071350f, 0.38339471817016601562f, 0.26379105448722839355f, 0.081982679665088653564f, -0.0094656972214579582214f, -0.0053668646141886711121f, 0.051442697644233703613f, -0.041073672473430633545f, 0.0095457267016172409058f, 0.0097204148769378662109f, -0.17955555021762847900f, -0.35022729635238647461f, -0.45325818657875061035f, -0.11373912543058395386f, -0.16507747769355773926f, -0.25168728828430175781f, -0.0079124215990304946899f, -0.10025168955326080322f, -0.047397319227457046509f, -0.17346471548080444336f, -0.049288593232631683350f, -0.034368380904197692871f, 0.14411027729511260986f, -0.17820365726947784424f, 0.49382591247558593750f, 0.98904514312744140625f, 0.24132652580738067627f, 0.22965411841869354248f, 0.12542219460010528564f, 0.26269042491912841797f, 0.057466201484203338623f, -0.22019778192043304443f, -0.30213412642478942871f, -0.21279494464397430420f, -0.22185343503952026367f, -0.063457444310188293457f, -0.027569670230150222778f, -0.18291702866554260254f, -0.45003694295883178711f, -0.50228494405746459961f, -0.49308535456657409668f, -0.17344927787780761719f, -0.30103909969329833984f, -0.29624587297439575195f, -0.35247471928596496582f, -0.51994168758392333984f, -0.33456286787986755371f, -0.16226506233215332031f, -0.24923360347747802734f, 0.0031314783263951539993f, 0.21771678328514099121f, 0.082600697875022888184f, 0.43278154730796813965f, 0.99801146984100341797f, 0.26734590530395507812f, 0.17911054193973541260f, 0.17442961037158966064f, 0.053984381258487701416f, -0.12055671215057373047f, -0.29190808534622192383f, -0.34852418303489685059f, -0.081740364432334899902f, 0.15959495306015014648f, 0.13770598173141479492f, -0.080702602863311767578f, -0.24412791430950164795f, -0.41440349817276000977f, -0.47048866748809814453f, -0.36976474523544311523f, -0.16123178601264953613f, -0.17279492318630218506f, -0.21285825967788696289f, -0.67453485727310180664f, -0.79878628253936767578f, -0.30307003855705261230f, 0.21660320460796356201f, 0.19291162490844726562f, -0.015544978901743888855f, 0.14977289736270904541f, 0.010016037151217460632f, 0.16973298788070678711f, 0.83284854888916015625f, 0.49411290884017944336f, 0.26501432061195373535f, 0.062505729496479034424f, -0.064383916556835174561f, -0.19967615604400634766f, -0.35465008020401000977f, -0.24980506300926208496f, -0.19979608058929443359f, 0.27563765645027160645f, 0.56440377235412597656f, 0.046983826905488967896f, -0.20787006616592407227f, -0.38790309429168701172f, -0.50718700885772705078f, -0.28811442852020263672f, 0.048228845000267028809f, -0.012040575034916400909f, -0.11771712452173233032f, -0.39782527089118957520f, -1.0647664070129394531f, -0.40173217654228210449f, 0.26574796438217163086f, 0.42627471685409545898f, 0.040012575685977935791f, 0.15285278856754302979f, 0.35447826981544494629f, 0.62346625328063964844f, 0.37928402423858642578f, 0.19706246256828308105f, 0.086482688784599304199f, -0.10319641977548599243f, -0.27489927411079406738f, -0.36444118618965148926f, -0.19424666464328765869f, -0.18669162690639495850f, -0.23431295156478881836f, 0.12681947648525238037f, 0.20996755361557006836f, -0.17711433768272399902f, -0.27251949906349182129f, -0.29792547225952148438f, -0.13670550286769866943f, 0.072680003941059112549f, 0.22893810272216796875f, 0.17427325248718261719f, -0.17226192355155944824f, -0.091660551726818084717f, -0.84400629997253417969f, -0.61277562379837036133f, 0.020688617601990699768f, 0.17149053514003753662f, 0.023942610248923301697f, 0.11658207327127456665f, 0.077274575829505920410f, 0.72062420845031738281f, 0.24092425405979156494f, -0.28631913661956787109f, -0.54441201686859130859f, -0.43097981810569763184f, -0.26279613375663757324f, -0.25671374797821044922f, -0.043731644749641418457f, -0.11028595268726348877f, -0.12733407318592071533f, 0.094385534524917602539f, 0.22562384605407714844f, -0.089382208883762359619f, -0.21536998450756072998f, -0.15088456869125366211f, 0.014881012961268424988f, 0.23281238973140716553f, 0.39412042498588562012f, 0.30724224448204040527f, 0.27286782860755920410f, 0.24442540109157562256f, 0.33973813056945800781f, 0.0031528500840067863464f, 0.18445502221584320068f, -0.15153634548187255859f, 0.030726160854101181030f, -0.13784988224506378174f, -0.0014409285504370927811f, 0.43098506331443786621f, -0.17169013619422912598f, -0.62027025222778320312f, -0.77976173162460327148f, -0.47345963120460510254f, -0.099461622536182403564f, -0.039879657328128814697f, -0.12058969587087631226f, -0.15669715404510498047f, -0.16746924817562103271f, 0.15806609392166137695f, 0.42507413029670715332f, 0.093665517866611480713f, 0.092137604951858520508f, -0.13424721360206604004f, -0.096973329782485961914f, -0.023357063531875610352f, 0.013343221507966518402f, 0.26225462555885314941f, 0.23970887064933776855f, 0.71818983554840087891f, 0.99085789918899536133f, 0.79486751556396484375f, 0.37003037333488464355f, -0.081560783088207244873f, -0.027122968807816505432f, -0.21778605878353118896f, 0.14791765809059143066f, 0.32955950498580932617f, -0.45532053709030151367f, -0.82032948732376098633f, -0.58884471654891967773f, -0.21105258166790008545f, -0.057684235274791717529f, -0.11256942898035049438f, -0.19122739136219024658f, -0.076833993196487426758f, 0.0034710385370999574661f, 0.22875079512596130371f, 0.31195953488349914551f, 0.28332602977752685547f, 0.18905173242092132568f, -0.083127789199352264404f, -0.070031866431236267090f, -0.15202631056308746338f, -0.33254396915435791016f, -0.097376391291618347168f, -0.14549745619297027588f, 0.50153738260269165039f, 0.65857100486755371094f, 0.83233952522277832031f, 0.60340917110443115234f, 0.17647197842597961426f, 0.055077664554119110107f, -0.037293728440999984741f, 0.33447027206420898438f, 0.38072592020034790039f, -0.63929527997970581055f, -0.57854747772216796875f, -0.29939922690391540527f, -0.14954070746898651123f, -0.097872719168663024902f, -0.12382180988788604736f, -0.33649745583534240723f, -0.031150648370385169983f, -0.043538618832826614380f, 0.28666362166404724121f, 0.50570350885391235352f, 0.44439700245857238770f, 0.17872877418994903564f, -0.050125759094953536987f, 0.050304483622312545776f, -0.12801884114742279053f, -0.29612120985984802246f, -0.15146252512931823730f, -0.19303944706916809082f, 0.0039347414858639240265f, 0.080461524426937103271f, 0.51766210794448852539f, 0.82028967142105102539f, 0.12590302526950836182f, 0.085675410926342010498f, 0.20162075757980346680f, 0.38507577776908874512f, 0.53924643993377685547f, -0.27911627292633056641f, -0.11799868941307067871f, 0.17211981117725372314f, -0.037302095443010330200f, -0.24477282166481018066f, -0.12603333592414855957f, -0.25080299377441406250f, -0.095648601651191711426f, 0.077613100409507751465f, 0.52691847085952758789f, 0.70898407697677612305f, 0.36894053220748901367f, 0.071345485746860504150f, -0.13124433159828186035f, 0.071724750101566314697f, 0.13271829485893249512f, 0.19306620955467224121f, 0.15489339828491210938f, 0.16288129985332489014f, 0.13469684123992919922f, 0.31391173601150512695f, 0.59038466215133666992f, 1.0479409694671630859f, 0.40726411342620849609f, 0.028573248535394668579f, 0.23066005110740661621f, 0.39557561278343200684f, 0.24573025107383728027f, 0.11794738471508026123f, 0.28057432174682617188f, 0.32026278972625732422f, 0.042128141969442367554f, -0.13088549673557281494f, 0.18628278374671936035f, -0.065039202570915222168f, -0.13418045639991760254f, 0.22417470812797546387f, 0.55225050449371337891f, 0.51325124502182006836f, 0.033252961933612823486f, 0.0082352962344884872437f, -0.037927389144897460938f, 0.22182033956050872803f, 0.28751504421234130859f, 0.18737688660621643066f, 0.11362746357917785645f, 0.16130259633064270020f, 0.39116805791854858398f, 0.56639087200164794922f, 0.82710719108581542969f, 1.0238585472106933594f, 0.45341989398002624512f, 0.0019622221589088439941f, 0.15902252495288848877f, 0.11125788837671279907f, 0.34470078349113464355f, 0.14573088288307189941f, -0.12407983094453811646f, -0.082323461771011352539f, 0.10314418375492095947f, 0.096331648528575897217f, 0.28618961572647094727f, 0.020877063274383544922f, -0.032394737005233764648f, 0.18462811410427093506f, 0.37137770652770996094f, 0.21286109089851379395f, -0.012936282902956008911f, 0.20825806260108947754f, 0.16684642434120178223f, 0.21789278090000152588f, 0.25689533352851867676f, 0.052902672439813613892f, 0.019064197316765785217f, 0.31808581948280334473f, 0.27909025549888610840f, 0.45594093203544616699f, 0.76782703399658203125f, 0.82659524679183959961f, 0.63645315170288085938f, -0.00088927865726873278618f, 0.049788348376750946045f, 0.045245993882417678833f, 0.43165534734725952148f, 0.20008556544780731201f, 0.045241151005029678345f, 0.046258118003606796265f, 0.15115724503993988037f, 0.24967782199382781982f, 0.24202658236026763916f, -0.10274890065193176270f, -0.10806235671043395996f, 0.15637236833572387695f, 0.24312052130699157715f, 0.082539610564708709717f, -0.043427083641290664673f, 0.30999016761779785156f, 0.25345465540885925293f, 0.39507716894149780273f, 0.41249990463256835938f, 0.35079136490821838379f, 0.21503333747386932373f, 0.50584059953689575195f, 0.61070066690444946289f, 0.44644930958747863770f, 0.79369777441024780273f, 0.36039206385612487793f, 0.048633165657520294189f, -0.069647878408432006836f, -0.0049801990389823913574f, -0.019632825627923011780f, -0.14936541020870208740f, -0.13573192059993743896f, 0.21954791247844696045f, 0.31688198447227478027f, 0.28057458996772766113f, 0.047322772443294525146f, 0.29088461399078369141f, 0.15039357542991638184f, 0.020561764016747474670f, 0.17698441445827484131f, 0.14938630163669586182f, 0.13956430554389953613f, 0.15809792280197143555f, 0.12436502426862716675f, 0.31120479106903076172f, 0.40934538841247558594f, 0.43730220198631286621f, 0.39039111137390136719f, 0.29317301511764526367f, 0.34638237953186035156f, 0.49603569507598876953f, 0.32389968633651733398f, 0.76273882389068603516f, 0.51433038711547851562f, -0.041767306625843048096f, 0.0021545067429542541504f, -0.25158703327178955078f, -0.45529398322105407715f, 0.10510134696960449219f, -0.014234271831810474396f, 0.21234801411628723145f, 0.37031516432762145996f, 0.46827220916748046875f, 0.12714965641498565674f, 0.21504198014736175537f, 0.054237414151430130005f, 0.0046136411838233470917f, 0.072665281593799591064f, 0.14427258074283599854f, 0.34548446536064147949f, 0.11097782850265502930f, -0.049271598458290100098f, 0.034859865903854370117f, 0.26975625753402709961f, 0.33847200870513916016f, 0.41355893015861511230f, 0.20043911039829254150f, 0.23437750339508056641f, 0.38047215342521667480f, 0.17828407883644104004f, 0.077346809208393096924f, 0.068602636456489562988f, -0.10373629629611968994f, -0.062570184469223022461f, 0.049561783671379089355f, 0.20614291727542877197f, 0.19465976953506469727f, -0.019308401271700859070f, 0.19666554033756256104f, 0.25556898117065429688f, 0.17646433413028717041f, 0.081841357052326202393f, 0.037933856248855590820f, -0.016846628859639167786f, 0.041638847440481185913f, 0.049778506159782409668f, 0.22331251204013824463f, 0.27073368430137634277f, 0.21245808899402618408f, 0.060998182743787765503f, 0.071040891110897064209f, 0.31407397985458374023f, 0.29119610786437988281f, 0.10000272095203399658f, 0.12911653518676757812f, 0.27641221880912780762f, 0.38388252258300781250f, 0.096869520843029022217f, 0.075430758297443389893f, 0.072584763169288635254f, -0.0048755579628050327301f, -0.020133191719651222229f, -0.0096246907487511634827f, 0.29962688684463500977f, 0.34006348252296447754f, 0.54326879978179931641f, 0.23040097951889038086f, 0.10717391967773437500f, 0.20580753684043884277f, -0.047958724200725555420f, -0.0099780075252056121826f, 0.20113512873649597168f, 0.14419701695442199707f, 0.042734246701002120972f, -0.014260654337704181671f, 0.024246960878372192383f, 0.19169253110885620117f, 0.15041120350360870361f, 0.11322236806154251099f, 0.089069753885269165039f, 0.12233946472406387329f, 0.15065798163414001465f, 0.12226104736328125000f, 0.068794786930084228516f, 0.14139102399349212646f, 0.039889402687549591064f, -0.030573554337024688721f, -0.16218458116054534912f, -0.021776584908366203308f, 0.00035144761204719543457f, -0.0022774897515773773193f, 0.53520047664642333984f, 0.42066633701324462891f, 0.40448731184005737305f, 0.072493895888328552246f, -0.0065033552236855030060f, 0.071018822491168975830f, -0.14357104897499084473f, -0.11462913453578948975f, -0.23010818660259246826f, -0.24754405021667480469f, -0.033448457717895507812f, 0.073565743863582611084f, 0.073580347001552581787f, 0.21231561899185180664f, 0.086120881140232086182f, 0.015626389533281326294f, 0.26693528890609741211f, 0.18056625127792358398f, 0.19124332070350646973f, 0.10071153938770294189f, 0.031025428324937820435f, 0.045529671013355255127f, 0.087827257812023162842f, 0.15742816030979156494f, -0.29175230860710144043f, 0.0084800459444522857666f, 0.0012084729969501495361f, 0.0069319456815719604492f, 0.078641675412654876709f, 0.027040647342801094055f, -0.26454398036003112793f, -0.35560202598571777344f, -0.27129110693931579590f, 0.032529663294553756714f, -0.060825228691101074219f, -0.091116756200790405273f, -0.024799816310405731201f, 0.046688206493854522705f, -0.026150470599532127380f, -0.22630266845226287842f, -0.15979202091693878174f, -0.12192513793706893921f, 0.0055773351341485977173f, -0.30443048477172851562f, -0.28701183199882507324f, -0.15600469708442687988f, -0.26575511693954467773f, -0.15424510836601257324f, -0.15837547183036804199f, -0.34008333086967468262f, 0.077122427523136138916f, 0.24166743457317352295f, 0.087860859930515289307f, 0.012436572462320327759f, -0.00059558078646659851074f, -0.0056633446365594863892f, 0.043568357825279235840f, -0.48247161507606506348f, -0.71721816062927246094f, -0.52028733491897583008f, 0.030493663623929023743f, -0.17183761298656463623f, -0.14247316122055053711f, 0.17324054241180419922f, 0.081026658415794372559f, -0.42493507266044616699f, -0.28996285796165466309f, -0.24711975455284118652f, -0.31940898299217224121f, -0.13695073127746582031f, -0.24422140419483184814f, -0.30048373341560363770f, -0.24762742221355438232f, -0.50423330068588256836f, -0.65261000394821166992f, -0.43504557013511657715f, -0.28278687596321105957f, -0.62375372648239135742f, -0.54071265459060668945f, -0.072682023048400878906f, 0.13386441767215728760f, 0.014622583985328674316f, -0.011519283056259155273f, 0.016440644860267639160f, -0.032989442348480224609f, -0.17446859180927276611f, -0.045524403452873229980f, -0.060150995850563049316f, -0.14057432115077972412f, -0.30413669347763061523f, -0.50384694337844848633f, -0.65608441829681396484f, -0.53718781471252441406f, -0.88875359296798706055f, -0.39276817440986633301f, -0.33513537049293518066f, -0.37194129824638366699f, -0.80875623226165771484f, -0.96777319908142089844f, -0.94489568471908569336f, -0.51327019929885864258f, -0.56817620992660522461f, -0.27225071191787719727f, -0.10239868611097335815f, -0.22677692770957946777f, -0.17959679663181304932f, -0.019551465287804603577f, 0.0076058432459831237793f, -0.0069590676575899124146f, 0.0074988976120948791504f, 0.00094334036111831665039f, 0.0012427978217601776123f, 0.020794924348592758179f, -0.00070927664637565612793f, 0.14883635938167572021f, 0.13389578461647033691f, 0.10815952718257904053f, 0.016557367518544197083f, -0.046458724886178970337f, -0.016350859776139259338f, -0.13780817389488220215f, -0.17545269429683685303f, -0.41382917761802673340f, -0.38685682415962219238f, -0.45840790867805480957f, -0.39828246831893920898f, -0.10720679908990859985f, 0.087012596428394317627f, 0.032904569059610366821f, -0.0078950021415948867798f, -0.28559258580207824707f, 0.046560559421777725220f, 0.21358279883861541748f, 0.021008815616369247437f, 0.0019095502793788909912f, -0.027848474681377410889f, 0.017685219645500183105f, -0.035598330199718475342f},
  {-0.0091337729245424270630f, -0.0021710023283958435059f, -0.0098114367574453353882f, -0.020199581980705261230f, 0.010117396712303161621f, 0.0018077231943607330322f, 0.015845485031604766846f, -0.0011989958584308624268f, 0.011609911918640136719f, 0.0074392780661582946777f, 0.029675159603357315063f, 0.032022867351770401001f, -0.042125351727008819580f, -0.068348869681358337402f, 0.039064925163984298706f, -0.0089800776913762092590f, -0.0068500936031341552734f, -0.0047001466155052185059f, -0.020799318328499794006f, 0.032012734562158584595f, -0.016517568379640579224f, 0.0076595321297645568848f, 0.017892930656671524048f, 0.021882705390453338623f, 0.014326617121696472168f, 0.0065140500664710998535f, -0.024391114711761474609f, -0.014811554923653602600f, -0.013454837724566459656f, -0.020550712943077087402f, 0.010550543665885925293f, -0.030515199527144432068f, -0.023265780881047248840f, 2.6902882382273674011e-05f, 0.0042455759830772876740f, -0.047422219067811965942f, -0.090540446341037750244f, -0.22155740857124328613f, -0.32872122526168823242f, -0.034523651003837585449f, -0.020940082147717475891f, -0.0095930974930524826050f, 0.18634799122810363770f, 0.42915156483650207520f, 0.49718531966209411621f, 0.054088808596134185791f, -0.28700488805770874023f, -0.55316203832626342773f, -0.44775310158729553223f, -0.35394296050071716309f, -0.23487797379493713379f, -0.29594922065734863281f, 0.029939342290163040161f, 0.0021196678280830383301f, -0.017274577170610427856f, -0.0037316717207431793213f, 0.020068746060132980347f, 0.011834599077701568604f, 0.024455098435282707214f, -0.031363565474748611450f, -0.026425760239362716675f, -0.045271817594766616821f, -0.078574560582637786865f, -0.15268494188785552979f, -0.24209921061992645264f, -0.40783286094665527344f, -0.16955977678298950195f, 0.075238712131977081299f, 0.20089365541934967041f, 0.26414355635643005371f, 0.40833145380020141602f, 0.29649269580841064453f, 0.27480950951576232910f, -0.20944145321846008301f, -0.48542645573616027832f, -0.97563046216964721680f, -0.56934195756912231445f, -0.59534686803817749023f, -0.32901504635810852051f, -0.23706093430519104004f, -0.024973617866635322571f, 0.012256754562258720398f, -0.0055850017815828323364f, -0.0082550812512636184692f, -0.024835873395204544067f, 0.015033263713121414185f, 0.20359621942043304443f, -0.034866712987422943115f, 0.096340611577033996582f, 0.24738216400146484375f, 0.35199517011642456055f, -0.012536987662315368652f, 0.19929532706737518311f, 0.26778164505958557129f, 0.11057300865650177002f, 0.24388596415519714355f, 0.23312817513942718506f, 0.24954432249069213867f, 0.15985509753227233887f, 0.0083589190617203712463f, -0.14042387902736663818f, -0.41926419734954833984f, -0.57030767202377319336f, -0.63018429279327392578f, -0.81541621685028076172f, -0.40298169851303100586f, -0.42376047372817993164f, -0.28321394324302673340f, -0.25955364108085632324f, -0.030996667221188545227f, -0.24079065024852752686f, 0.0062194317579269409180f, -0.029778460040688514709f, -0.0093100965023040771484f, 0.44555646181106567383f, 0.32147938013076782227f, 0.53586882352828979492f, 0.45052304863929748535f, 0.15190851688385009766f, -0.010120511986315250397f, 0.54181420803070068359f, 0.57816618680953979492f, 0.60830390453338623047f, 0.24363459646701812744f, 0.27740392088890075684f, 0.40973305702209472656f, 0.21079891920089721680f, -0.13656866550445556641f, -0.22875791788101196289f, -0.51158350706100463867f, -0.67432755231857299805f, -0.40364876389503479004f, -0.35970669984817504883f, -0.75865215063095092773f, -0.88250434398651123047f, -0.59902250766754150391f, -0.33709651231765747070f, -0.24801731109619140625f, 0.21157464385032653809f, 0.14715406298637390137f, 0.031434345990419387817f, -0.027593638747930526733f, 0.41112241148948669434f, 0.33378347754478454590f, 0.41492861509323120117f, 0.46432361006736755371f, 0.27981951832771301270f, 0.081529378890991210938f, 0.010306020267307758331f, -0.027375442907214164734f, -0.10844212770462036133f, 0.18718266487121582031f, 0.38288557529449462891f, 0.39444988965988159180f, 0.45225596427917480469f, 0.42641279101371765137f, 0.015296641737222671509f, -0.34090927243232727051f, -0.53363710641860961914f, -0.50386023521423339844f, -0.37741103768348693848f, -0.40229627490043640137f, -0.49615514278411865234f, -0.25902417302131652832f, -0.057504635304212570190f, 0.14451569318771362305f, 0.22153772413730621338f, 0.18882182240486145020f, -0.035381536930799484253f, -0.027871679514646530151f, -0.25318747758865356445f, 0.60716634988784790039f, 0.21631792187690734863f, 0.0024312469176948070526f, -0.12884393334388732910f, -0.31778910756111145020f, 0.17425014078617095947f, 0.011801300570368766785f, -0.066989257931709289551f, 0.21601213514804840088f, 0.31839874386787414551f, 0.48247435688972473145f, 0.64953804016113281250f, 0.51482146978378295898f, 0.34141916036605834961f, 0.32108539342880249023f, 0.13374528288841247559f, -0.35472682118415832520f, -0.51822400093078613281f, -0.38000309467315673828f, -0.64947247505187988281f, -0.21315349638462066650f, -0.025960700586438179016f, 0.35825410485267639160f, 0.10163185000419616699f, -0.14571611583232879639f, -0.018237935379147529602f, -0.24812424182891845703f, -0.38081467151641845703f, 0.63813287019729614258f, 0.66290366649627685547f, -0.071773603558540344238f, -0.27423480153083801270f, -0.13089451193809509277f, 0.084846109151840209961f, -0.020788745954632759094f, -0.050486970692873001099f, 0.052139386534690856934f, 0.10037225484848022461f, 0.17946536839008331299f, 0.48167800903320312500f, 0.50560504198074340820f, 0.50175964832305908203f, 0.14946325123310089111f, -0.23300947248935699463f, -0.35143956542015075684f, -0.30496186017990112305f, -0.33434894680976867676f, -0.57448548078536987305f, -0.54908293485641479492f, -0.29831436276435852051f, 0.081467926502227783203f, 0.25832909345626831055f, -0.32871583104133605957f, -0.016417801380157470703f, 0.11987269669771194458f, -0.50906759500503540039f, 0.31794682145118713379f, 0.63452947139739990234f, -0.075331985950469970703f, -0.13958016037940979004f, -0.00069750496186316013336f, -0.023362265899777412415f, -0.22494062781333923340f, -0.17500382661819458008f, -0.092887766659259796143f, 0.0012800917029380798340f, 0.26665318012237548828f, 0.57610726356506347656f, 0.48908707499504089355f, 0.51544260978698730469f, 0.10248374938964843750f, -0.069074742496013641357f, -0.22048674523830413818f, -0.45469200611114501953f, -0.28614091873168945312f, -0.28974282741546630859f, -0.68245828151702880859f, -0.36799100041389465332f, 0.025757208466529846191f, 0.20558311045169830322f, 0.0069559253752231597900f, -0.14262279868125915527f, -0.22570426762104034424f, -0.26237758994102478027f, 0.077789381146430969238f, -0.085079021751880645752f, -0.051588173955678939819f, 0.10000684112310409546f, 0.26802369952201843262f, -0.069722987711429595947f, -0.15765781700611114502f, 0.028727421537041664124f, -0.14924453198909759521f, 0.030495626851916313171f, 0.35019838809967041016f, 0.74980378150939941406f, 0.88573902845382690430f, 0.75084996223449707031f, 0.34196126461029052734f, 0.10751386731863021851f, -0.13938282430171966553f, -0.16464710235595703125f, -0.37282177805900573730f, -0.26737800240516662598f, -0.46831500530242919922f, -0.85483270883560180664f, -0.47212925553321838379f, 0.20736114680767059326f, 0.29488700628280639648f, -0.16231384873390197754f, -0.22913646697998046875f, 0.010341649875044822693f, 0.24059276282787322998f, -0.12344624102115631104f, 0.11240942031145095825f, 0.28998342156410217285f, 0.042819097638130187988f, -0.088405862450599670410f, -0.13931073248386383057f, -0.041418749839067459106f, 0.063611924648284912109f, -0.10787631571292877197f, 0.20130445063114166260f, 0.69394445419311523438f, 0.57204014062881469727f, 0.34512788057327270508f, 0.13872438669204711914f, 0.19719922542572021484f, 0.20206083357334136963f, 0.10179617255926132202f, -0.16693295538425445557f, -0.20714807510375976562f, -0.61435389518737792969f, -1.2743676900863647461f, -0.81367087364196777344f, -0.41069129109382629395f, 0.23178353905677795410f, -0.066667445003986358643f, -0.097400598227977752686f, 0.23728528618812561035f, 0.41385978460311889648f, 0.17508552968502044678f, 0.29395440220832824707f, -0.00085056462557986378670f, -0.020829165354371070862f, 0.061887141317129135132f, -0.048696395009756088257f, 0.00028118770569562911987f, 0.12934616208076477051f, 0.040072541683912277222f, 0.19255678355693817139f, 0.66848176717758178711f, 0.65173411369323730469f, 0.27279669046401977539f, 0.19826894998550415039f, 0.33434987068176269531f, 0.30182909965515136719f, 0.55123507976531982422f, 0.025425311177968978882f, -0.12435683608055114746f, -0.46558177471160888672f, -0.64040380716323852539f, -0.68136072158813476562f, -0.25979271531105041504f, 0.11404160410165786743f, -0.033805578947067260742f, 0.034585721790790557861f, 0.11042977124452590942f, 0.38252919912338256836f, 0.32062914967536926270f, 0.29571288824081420898f, -0.23310820758342742920f, -0.018438024446368217468f, 0.099483706057071685791f, 0.13981261849403381348f, -0.16107603907585144043f, -0.27680838108062744141f, -0.43981280922889709473f, -0.074673548340797424316f, 0.64646834135055541992f, 0.60192036628723144531f, 0.32809248566627502441f, 0.56555670499801635742f, 0.51221203804016113281f, 0.43335956335067749023f, 0.13851657509803771973f, -0.24300435185432434082f, -0.15287590026855468750f, 0.55650204420089721680f, 0.39506003260612487793f, 0.56310713291168212891f, 0.26586249470710754395f, 0.069582745432853698730f, 0.055196862667798995972f, -0.046193633228540420532f, -0.11149593442678451538f, 0.46449065208435058594f, 0.52884078025817871094f, 0.10914465039968490601f, -0.18280072510242462158f, -0.14679287374019622803f, 0.043444976210594177246f, -0.13599807024002075195f, -0.37577861547470092773f, -0.36881887912750244141f, -0.41961443424224853516f, 0.25304761528968811035f, 0.76221293210983276367f, 0.70411741733551025391f, 0.50473994016647338867f, 0.34629344940185546875f, 0.37040036916732788086f, 0.25516697764396667480f, -0.065955497324466705322f, -0.40301433205604553223f, -0.47474890947341918945f, -0.19905474781990051270f, -0.37978956103324890137f, 0.52056092023849487305f, 0.41178154945373535156f, 0.30491986870765686035f, -0.24480608105659484863f, -0.042797703295946121216f, -0.0050894245505332946777f, 0.42716351151466369629f, 0.27285018563270568848f, -0.16388449072837829590f, -0.20288401842117309570f, -0.33347690105438232422f, -0.16058532893657684326f, -0.38543409109115600586f, -0.40819934010505676270f, -0.26815769076347351074f, -0.11820200085639953613f, 0.41474419832229614258f, 0.55234646797180175781f, 0.55752992630004882812f, 0.33091667294502258301f, 0.19311544299125671387f, 0.10715630650520324707f, -0.16755281388759613037f, -0.35740980505943298340f, -0.27299740910530090332f, -0.49888768792152404785f, -0.25004121661186218262f, -0.47659051418304443359f, 0.45235934853553771973f, 0.77028435468673706055f, 0.12957246601581573486f, -0.20741486549377441406f, 0.16288559138774871826f, -0.24390605092048645020f, 0.27499440312385559082f, 0.23022027313709259033f, -0.10351295024156570435f, -0.23751728236675262451f, -0.36143842339515686035f, -0.067138552665710449219f, -0.33790996670722961426f, -0.27007123827934265137f, -0.15719676017761230469f, -0.091759420931339263916f, 0.34675025939941406250f, 0.45982456207275390625f, 0.43588456511497497559f, 0.25884830951690673828f, 0.17862544953823089600f, -0.041980274021625518799f, -0.39753970503807067871f, -0.30444100499153137207f, -0.42251384258270263672f, -0.35571670532226562500f, -0.37448352575302124023f, -0.22282141447067260742f, -0.10103239864110946655f, 0.34567287564277648926f, 0.30385431647300720215f, 0.013260062783956527710f, 0.14641645550727844238f, 0.57582342624664306641f, 0.22245520353317260742f, 0.59122210741043090820f, -0.022440273314714431763f, -0.50184369087219238281f, -0.0029913045000284910202f, 0.18839517235755920410f, 0.17078118026256561279f, 0.019691297784447669983f, 0.048292718827724456787f, 0.11079476028680801392f, 0.30035889148712158203f, 0.31231921911239624023f, 0.13005048036575317383f, 0.25150525569915771484f, -0.14701883494853973389f, -0.21482558548450469971f, -0.45833456516265869141f, -0.38872778415679931641f, -0.25786381959915161133f, -0.42494642734527587891f, -0.23862679302692413330f, -0.10409145057201385498f, -0.17680220305919647217f, 0.43379405140876770020f, 0.28377154469490051270f, -0.00018739700317382812500f, 0.19528368115425109863f, 0.16233314573764801025f, 0.37959179282188415527f, 0.36669185757637023926f, -0.75323289632797241211f, -0.85856014490127563477f, 0.063997648656368255615f, 0.24921239912509918213f, 0.26319128274917602539f, 0.16512642800807952881f, 0.077192813158035278320f, 0.22087854146957397461f, 0.42369648814201354980f, 0.19647756218910217285f, -0.077529869973659515381f, -0.082326777279376983643f, -0.33997237682342529297f, -0.47129672765731811523f, -0.34028670191764831543f, -0.34945505857467651367f, -0.18509717285633087158f, -0.18240761756896972656f, -0.24477952718734741211f, -0.14279684424400329590f, 0.15435175597667694092f, 0.55284374952316284180f, 0.53789073228836059570f, 0.28431063890457153320f, 0.13369080424308776855f, 0.21831505000591278076f, 0.017848374322056770325f, 0.065611556172370910645f, -0.62589883804321289062f, -0.72640627622604370117f, -0.36140578985214233398f, 0.014854391105473041534f, 0.15698932111263275146f, 0.32148408889770507812f, 0.26314777135848999023f, -0.0079889474436640739441f, 0.14744701981544494629f, 0.080582998692989349365f, 0.016930591315031051636f, -0.10438033938407897949f, -0.24641560018062591553f, -0.28851479291915893555f, -0.17432589828968048096f, -0.040541354566812515259f, 0.029277293011546134949f, -0.094504058361053466797f, -0.18270312249660491943f, -0.22108285129070281982f, 0.069621726870536804199f, 0.52646255493164062500f, 0.57562696933746337891f, 0.036182716488838195801f, -0.0018682369263842701912f, 0.27209979295730590820f, -0.34389320015907287598f, -0.48670879006385803223f, -0.68795651197433471680f, -0.53315508365631103516f, -0.18559743463993072510f, -0.28040513396263122559f, 0.050238624215126037598f, 0.050630662590265274048f, -0.32753932476043701172f, -0.13337427377700805664f, -0.066550850868225097656f, -0.081706389784812927246f, -0.13500900566577911377f, 0.079470090568065643311f, 0.11569993197917938232f, -0.10843706876039505005f, 0.047418799251317977905f, 0.039272662252187728882f, -0.050708811730146408081f, -0.0099629759788513183594f, 0.060002300888299942017f, 0.0037633480969816446304f, 0.053600575774908065796f, 0.50646501779556274414f, 0.40523323416709899902f, 0.018938187509775161743f, -0.30134856700897216797f, -0.15379898250102996826f, -0.25059822201728820801f, -0.51608389616012573242f, -0.55987983942031860352f, -0.16159754991531372070f, 0.18113929033279418945f, -0.062447845935821533203f, -0.0084884250536561012268f, -0.23140913248062133789f, -0.43581533432006835938f, -0.30723500251770019531f, -0.15119054913520812988f, -0.17091087996959686279f, -0.10574440658092498779f, 0.091317065060138702393f, 0.052732251584529876709f, -0.087118975818157196045f, -0.038285344839096069336f, 0.043325416743755340576f, 0.033087342977523803711f, 0.10526342689990997314f, 0.060186240822076797485f, 0.38535663485527038574f, 0.21081076562404632568f, 0.15870645642280578613f, 0.013657606206834316254f, 0.073618754744529724121f, 0.054589383304119110107f, 0.021119164302945137024f, -0.11620140820741653442f, -0.57063424587249755859f, -0.17577008903026580811f, -0.15472909808158874512f, -0.089167587459087371826f, -0.083770513534545898438f, -0.12501019239425659180f, -0.093905590474605560303f, -0.15865197777748107910f, -0.11825031042098999023f, -0.18444138765335083008f, -0.11638244986534118652f, 0.0023985968437045812607f, 0.067437544465065002441f, 0.026401884853839874268f, 0.053249411284923553467f, 0.041414890438318252563f, 0.068466074764728546143f, 0.11569703370332717896f, 0.058308262377977371216f, -0.17936922609806060791f, 0.13011057674884796143f, 0.41063821315765380859f, 0.076476320624351501465f, -0.0087483702227473258972f, 0.042575608938932418823f, 0.059994880110025405884f, 0.20829279720783233643f, 0.27972164750099182129f, -0.036869678646326065063f, -0.19751504063606262207f, -0.17115889489650726318f, 0.10264983028173446655f, -0.11424835026264190674f, -0.18474988639354705811f, -0.024980833753943443298f, -0.095221273601055145264f, -0.26231241226196289062f, -0.25259816646575927734f, -0.098042935132980346680f, -0.10646419972181320190f, -0.035355582833290100098f, 0.016108246520161628723f, 0.088487811386585235596f, 0.095387585461139678955f, 0.095127277076244354248f, 0.050841901451349258423f, 0.0099702915176749229431f, 0.018205942586064338684f, 0.34297031164169311523f, 0.0095136072486639022827f, -0.28232219815254211426f, -0.033687591552734375000f, 0.025695640593767166138f, 0.024651739746332168579f, 0.33922412991523742676f, -0.16768346726894378662f, 0.12993101775646209717f, -0.078066818416118621826f, -0.34506583213806152344f, 0.16066463291645050049f, 0.044974051415920257568f, 0.051964115351438522339f, 0.067346923053264617920f, -0.096214592456817626953f, -0.084564313292503356934f, -0.073093846440315246582f, -0.14713820815086364746f, 0.0020304308272898197174f, 0.011797449551522731781f, 0.053756404668092727661f, 0.37550431489944458008f, 0.33181166648864746094f, 0.031573560088872909546f, 0.031523659825325012207f, 0.29493436217308044434f, 0.79657810926437377930f, 0.81373220682144165039f, 0.12739650905132293701f, -0.11418819427490234375f, -0.017640918493270874023f, 0.011269353330135345459f, 0.0075620189309120178223f, 0.14261835813522338867f, -0.30902880430221557617f, 0.19636754691600799561f, 0.67625939846038818359f, 0.27919715642929077148f, 0.21444921195507049561f, 0.14015151560306549072f, 0.13550527393817901611f, 0.17100282013416290283f, 0.027922766283154487610f, 0.035848770290613174438f, -0.043248012661933898926f, -0.24891185760498046875f, -0.20564517378807067871f, -0.069507457315921783447f, 0.091614484786987304688f, -0.081154085695743560791f, 0.096447713673114776611f, 0.23945276439189910889f, 0.25850838422775268555f, 0.28179186582565307617f, 0.73695868253707885742f, 0.47112673521041870117f, -0.15733321011066436768f, -0.085869170725345611572f, -0.022098056972026824951f, -0.033385656774044036865f, 0.029037792235612869263f, 0.17027927935123443604f, -0.30837371945381164551f, -0.15462505817413330078f, 0.29782739281654357910f, 0.059435013681650161743f, 0.23090681433677673340f, 0.38892450928688049316f, 0.24828860163688659668f, 0.37981319427490234375f, 0.12230088561773300171f, 0.21395167708396911621f, 0.19012644886970520020f, 0.14653247594833374023f, -0.32573267817497253418f, -0.16941106319427490234f, 0.023290041834115982056f, 0.088764771819114685059f, 0.24453558027744293213f, 0.72936147451400756836f, 0.77186894416809082031f, 0.24587810039520263672f, 0.17621594667434692383f, 0.32936102151870727539f, 0.094394586980342864990f, -0.14329573512077331543f, -0.028430607169866561890f, -0.018512751907110214233f, -0.031990028917789459229f, -0.0082609057426452636719f, 0.16375704109668731689f, 0.33531984686851501465f, 0.51353389024734497070f, 0.71257883310317993164f, 0.78972333669662475586f, 0.49235457181930541992f, 0.80639332532882690430f, 0.73626899719238281250f, 0.42834001779556274414f, 0.33809977769851684570f, 0.44489973783493041992f, 0.77324950695037841797f, 0.29717424511909484863f, 0.45081228017807006836f, 0.71879714727401733398f, 0.74835968017578125000f, 0.39486625790596008301f, 0.73663985729217529297f, 0.84171670675277709961f, 0.53730094432830810547f, 0.52394664287567138672f, 0.28696262836456298828f, 0.012882128357887268066f, 0.0025518722832202911377f, 0.030137594789266586304f, -0.030580261722207069397f, 0.018337007611989974976f, -0.028603496029973030090f, -0.023655429482460021973f, -0.30824425816535949707f, -0.36362704634666442871f, 0.19068908691406250000f, 0.27368074655532836914f, 0.26410964131355285645f, 0.30282363295555114746f, 0.077756501734256744385f, 0.14803534746170043945f, 0.25757315754890441895f, 0.10794503241777420044f, 0.59326481819152832031f, 0.073677934706211090088f, 0.35024821758270263672f, 0.16428765654563903809f, 0.14237241446971893311f, 0.20458245277404785156f, -0.10623633861541748047f, 0.28437772393226623535f, 0.11399190872907638550f, -0.025243084877729415894f, 0.0066540241241455078125f, -0.0069551169872283935547f, 0.025526970624923706055f, 0.023846510797739028931f},
